{
    "tree_structure": {
        "children_left": [1, 3, 5, -1, 7, 9, 11, 13, 15, -1, -1, -1, 17, -1, -1, -1, -1, -1, -1],
        "children_right": [2, 4, 6, -1, 8, 10, 12, 14, 16, -1, -1, -1, 18, -1, -1, -1, -1, -1, -1],
        "feature": [0, 1, 2, -1, 0, 4, 3, 3, 5, -1, -1, -1, 6, -1, -1, -1, -1, -1, -1],
        "threshold": [0.315, 0.5, 982.6, -1, 0.14, 9265.0, 0.5, 1.5, 20.15, -1, -1, -1, 58.5, -1, -1, -1, -1, -1, -1],
        "value": [
            [55, 32], [43, 13], [12, 19], [3, 4], [40, 9], [7, 3], [5, 16], [6, 5],
            [34, 4], [6, 1], [1, 2], [3, 2], [2, 14], [5, 1], [1, 4], [3, 2],
            [31, 2], [2, 4], [0, 10]
        ],
        "impurity": [0.465, 0.357, 0.475, 0.49, 0.3, 0.42, 0.363, 0.496, 0.188, 0.245, 0.444, 0.48, 0.219, 0.278, 0.32, 0.48, 0.114, 0.444, 0, 0],
        "weighted_n_node_samples": [87, 56, 31, 7, 49, 10, 21, 11, 38, 7, 3, 5, 16, 6, 5, 5, 33, 6, 10],
        "n_node_samples": [87, 56, 31, 7, 49, 10, 21, 11, 38, 7, 3, 5, 16, 6, 5, 5, 33, 6, 10]
    },
    "feature_names": ["MO/LY", "differentiation", "CA125 U/ml", "Ascites cytology", "NE", "LY%", "age"],
    "class_names": ["Survival", "Dead"],
    "input_parameters": [
        [0.1, 0.6, 1000, 3, 9000, 25, 55],
        [0.2, 0.4, 1000, 0.3, 9000, 25, 55],
        [0.6, 0.4, 980, 0.3, 9200, 25, 55],
        [0.6, 0.4, 960, 0.3, 10000, 25, 55],
        [0.6, 0.4, 1000, 0.3, 9000, 25, 55],
        [0.1, 0.6, 1000, 0.1, 9000, 25, 55],
        [0.1, 0.6, 1000, 3, 9000, 25, 55],
        [0.2, 0.6, 1000, 0.3, 9000, 20, 55],
        [0.2, 0.6, 1000, 0.3, 9000, 25, 55],
        [0.6, 0.4, 1000, 0.6, 9000, 25, 55],
        [0.6, 0.4, 1000, 0.6, 9000, 25, 65]
    ]
}
